Language model created by QuickLM on Sun May 24 17:42:39 EDT 2015
Copyright (c) 1996-2010 Carnegie Mellon University and Alexander I. Rudnicky

The model is in standard ARPA format, designed by Doug Paul while he was at MITRE.

The code that was used to produce this language model is available in Open Source.
Please visit http://www.speech.cs.cmu.edu/tools/ for more information

The (fixed) discount mass is 0.5. The backoffs are computed using the ratio method.
This model based on a corpus of 43 sentences and 66 words

\data\
ngram 1=66
ngram 2=125
ngram 3=109

\1-grams:
-0.9729 </s> -0.3010
-0.9729 <s> -0.2375
-2.0043 A -0.2437
-2.3054 ALL -0.2522
-2.6064 AM -0.2522
-2.6064 ANOTHER -0.3000
-2.0043 AT -0.2437
-2.6064 B -0.2522
-2.6064 BACKWARD -0.2522
-2.1293 BRING -0.2945
-2.6064 BUY -0.2967
-2.6064 C -0.2522
-2.6064 CAN -0.2989
-2.1293 COKE -0.2522
-2.6064 COULD -0.2522
-2.1293 DESK -0.2945
-2.6064 DOOR -0.2522
-2.3054 DRINK -0.2497
-2.6064 EXCUSE -0.2945
-2.6064 FAV -0.2522
-2.1293 FAVOURITE -0.2473
-2.6064 FORWARD -0.2522
-2.6064 GET -0.2967
-2.6064 GLASS -0.2522
-2.6064 GO -0.2978
-2.6064 HELLO -0.2522
-2.6064 HERE -0.2522
-2.6064 HI -0.2978
-2.6064 HURRY -0.3000
-2.0043 I -0.2967
-2.6064 I'D -0.3000
-2.0043 I'M -0.2449
-2.3054 IS -0.2956
-2.6064 LAST -0.2956
-2.6064 LEMONADE -0.2522
-2.6064 LIKE -0.2956
-2.3054 LIKED -0.2978
-2.6064 LOCATED -0.2522
-2.6064 MAY -0.2522
-1.8282 ME -0.2461
-2.1293 MOVE -0.2978
-1.9074 MY -0.2956
-2.3054 NO -0.2978
-2.6064 ONE -0.2522
-1.9074 ORDER -0.2412
-2.6064 OVER -0.2978
-2.6064 PASS -0.2945
-2.3054 PLEASE -0.2485
-2.3054 SITTING -0.2967
-2.6064 THANK -0.2989
-2.3054 THANKS -0.2522
-2.6064 THAT -0.2989
-2.6064 THAT'S -0.2989
-2.0043 THE -0.2945
-2.1293 THERE -0.2522
-2.1293 TO -0.2934
-2.6064 USUAL -0.2522
-2.6064 VODKA -0.2522
-2.6064 WALLET -0.2522
-2.6064 WANT -0.2978
-2.3054 WATER -0.2522
-2.6064 WE -0.2945
-2.6064 WHERE -0.2522
-2.6064 YEAH -0.2522
-2.6064 YES -0.2989
-2.3054 YOU -0.2522

\2-grams:
-1.9345 <s> ANOTHER 0.0000
-1.6335 <s> BRING 0.0000
-1.9345 <s> CAN 0.0000
-1.9345 <s> COULD 0.0000
-1.9345 <s> DESK -0.2218
-1.9345 <s> EXCUSE 0.0000
-1.9345 <s> GO 0.0000
-1.9345 <s> HELLO 0.0000
-1.9345 <s> HI 0.0000
-1.9345 <s> HURRY 0.0000
-1.3324 <s> I 0.0000
-1.9345 <s> I'D 0.0000
-1.3324 <s> I'M 0.0000
-1.9345 <s> LAST 0.0000
-1.9345 <s> LOCATED 0.0000
-1.9345 <s> MAY 0.0000
-1.4574 <s> MOVE 0.0000
-1.9345 <s> MY -0.1461
-1.6335 <s> NO 0.0000
-1.4574 <s> ORDER -0.1461
-1.9345 <s> PASS 0.0000
-1.9345 <s> PLEASE -0.1761
-1.9345 <s> SITTING 0.0000
-1.9345 <s> THAT 0.0000
-1.9345 <s> THAT'S 0.0000
-1.9345 <s> VODKA 0.0000
-1.9345 <s> WATER 0.0000
-1.9345 <s> WE 0.0000
-1.9345 <s> WHERE 0.0000
-1.9345 <s> YEAH 0.0000
-1.9345 <s> YES 0.0000
-0.9031 A </s> -0.3010
-0.9031 A COKE 0.0000
-0.9031 A DRINK -0.1761
-0.9031 A WATER 0.0000
-0.3010 ALL </s> -0.3010
-0.3010 AM </s> -0.3010
-0.3010 ANOTHER ONE 0.0000
-0.9031 AT </s> -0.3010
-0.6021 AT DESK -0.1249
-0.9031 AT THE -0.2430
-0.3010 B </s> -0.3010
-0.3010 BACKWARD </s> -0.3010
-0.3010 BRING ME -0.1249
-0.3010 BUY A -0.2430
-0.3010 C </s> -0.3010
-0.3010 CAN YOU 0.0000
-0.3010 COKE </s> -0.3010
-0.3010 COULD </s> -0.3010
-0.7782 DESK A -0.2430
-0.7782 DESK B 0.0000
-0.7782 DESK C 0.0000
-0.3010 DOOR </s> -0.3010
-0.6021 DRINK </s> -0.3010
-0.6021 DRINK IS -0.1761
-0.3010 EXCUSE ME -0.2218
-0.3010 FAV </s> -0.3010
-0.7782 FAVOURITE </s> -0.3010
-0.7782 FAVOURITE DRINK -0.1761
-0.7782 FAVOURITE THANKS 0.0000
-0.3010 FORWARD </s> -0.3010
-0.3010 GET A -0.2430
-0.3010 GLASS </s> -0.3010
-0.3010 GO THERE 0.0000
-0.3010 HELLO </s> -0.3010
-0.3010 HERE </s> -0.3010
-0.3010 HI THERE 0.0000
-0.3010 HURRY OVER 0.0000
-0.9031 I AM 0.0000
-0.6021 I LIKED 0.0000
-0.9031 I WANT 0.0000
-0.3010 I'D LIKE 0.0000
-0.9031 I'M </s> -0.3010
-0.6021 I'M AT -0.0969
-0.9031 I'M SITTING 0.0000
-0.6021 IS ALL 0.0000
-0.6021 IS COKE 0.0000
-0.3010 LAST ORDER -0.2553
-0.3010 LEMONADE </s> -0.3010
-0.3010 LIKE MY -0.1461
-0.3010 LIKED TO -0.1249
-0.3010 LOCATED </s> -0.3010
-0.3010 MAY </s> -0.3010
-0.7782 ME </s> -0.3010
-1.0792 ME LEMONADE 0.0000
-0.6021 ME THE -0.0969
-0.7782 MOVE BACKWARD 0.0000
-0.7782 MOVE FORWARD 0.0000
-0.7782 MOVE HERE 0.0000
-1.0000 MY FAV 0.0000
-0.5229 MY FAVOURITE 0.0000
-1.0000 MY USUAL 0.0000
-0.6021 NO THANK 0.0000
-0.6021 NO THANKS 0.0000
-0.3010 ONE </s> -0.3010
-1.0000 ORDER </s> -0.3010
-1.0000 ORDER A -0.2430
-0.5229 ORDER MY 0.0000
-0.3010 OVER THERE 0.0000
-0.3010 PASS ME -0.1761
-0.6021 PLEASE </s> -0.3010
-0.6021 PLEASE BRING 0.0000
-0.3010 SITTING AT -0.0969
-0.3010 THANK YOU 0.0000
-0.3010 THANKS </s> -0.3010
-0.3010 THAT IS -0.1761
-0.3010 THAT'S ALL 0.0000
-0.9031 THE COKE 0.0000
-0.9031 THE DOOR 0.0000
-0.9031 THE GLASS 0.0000
-0.9031 THE WALLET 0.0000
-0.3010 THERE </s> -0.3010
-0.7782 TO BUY 0.0000
-0.7782 TO GET 0.0000
-0.7782 TO ORDER -0.2553
-0.3010 USUAL </s> -0.3010
-0.3010 VODKA </s> -0.3010
-0.3010 WALLET </s> -0.3010
-0.3010 WANT TO -0.2218
-0.3010 WATER </s> -0.3010
-0.3010 WE ME -0.2218
-0.3010 WHERE </s> -0.3010
-0.3010 YEAH </s> -0.3010
-0.3010 YES PLEASE -0.1761
-0.3010 YOU </s> -0.3010

\3-grams:
-0.3010 <s> ANOTHER ONE
-0.3010 <s> BRING ME
-0.3010 <s> CAN YOU
-0.3010 <s> COULD </s>
-0.3010 <s> DESK C
-0.3010 <s> EXCUSE ME
-0.3010 <s> GO THERE
-0.3010 <s> HELLO </s>
-0.3010 <s> HI THERE
-0.3010 <s> HURRY OVER
-0.9031 <s> I AM
-0.6021 <s> I LIKED
-0.9031 <s> I WANT
-0.3010 <s> I'D LIKE
-0.9031 <s> I'M </s>
-0.6021 <s> I'M AT
-0.9031 <s> I'M SITTING
-0.3010 <s> LAST ORDER
-0.3010 <s> LOCATED </s>
-0.3010 <s> MAY </s>
-0.7782 <s> MOVE BACKWARD
-0.7782 <s> MOVE FORWARD
-0.7782 <s> MOVE HERE
-0.3010 <s> MY FAVOURITE
-0.6021 <s> NO THANK
-0.6021 <s> NO THANKS
-0.3010 <s> ORDER MY
-0.3010 <s> PASS ME
-0.3010 <s> PLEASE BRING
-0.3010 <s> SITTING AT
-0.3010 <s> THAT IS
-0.3010 <s> THAT'S ALL
-0.3010 <s> VODKA </s>
-0.3010 <s> WATER </s>
-0.3010 <s> WE ME
-0.3010 <s> WHERE </s>
-0.3010 <s> YEAH </s>
-0.3010 <s> YES PLEASE
-0.3010 A COKE </s>
-0.3010 A DRINK </s>
-0.3010 A WATER </s>
-0.3010 ANOTHER ONE </s>
-0.6021 AT DESK A
-0.6021 AT DESK B
-0.3010 AT THE DOOR
-0.7782 BRING ME LEMONADE
-0.4771 BRING ME THE
-0.3010 BUY A WATER
-0.3010 CAN YOU </s>
-0.3010 DESK A </s>
-0.3010 DESK B </s>
-0.3010 DESK C </s>
-0.3010 DRINK IS COKE
-0.3010 EXCUSE ME </s>
-0.3010 FAVOURITE DRINK IS
-0.3010 FAVOURITE THANKS </s>
-0.3010 GET A COKE
-0.3010 GO THERE </s>
-0.3010 HI THERE </s>
-0.3010 HURRY OVER THERE
-0.3010 I AM </s>
-0.3010 I LIKED TO
-0.3010 I WANT TO
-0.3010 I'D LIKE MY
-0.6021 I'M AT DESK
-0.6021 I'M AT THE
-0.3010 I'M SITTING AT
-0.3010 IS ALL </s>
-0.3010 IS COKE </s>
-0.3010 LAST ORDER </s>
-0.3010 LIKE MY FAVOURITE
-0.6021 LIKED TO BUY
-0.6021 LIKED TO ORDER
-0.3010 ME LEMONADE </s>
-0.7782 ME THE COKE
-0.7782 ME THE GLASS
-0.7782 ME THE WALLET
-0.3010 MOVE BACKWARD </s>
-0.3010 MOVE FORWARD </s>
-0.3010 MOVE HERE </s>
-0.3010 MY FAV </s>
-0.7782 MY FAVOURITE </s>
-0.7782 MY FAVOURITE DRINK
-0.7782 MY FAVOURITE THANKS
-0.3010 MY USUAL </s>
-0.3010 NO THANK YOU
-0.3010 NO THANKS </s>
-0.3010 ORDER A DRINK
-0.7782 ORDER MY FAV
-0.7782 ORDER MY FAVOURITE
-0.7782 ORDER MY USUAL
-0.3010 OVER THERE </s>
-0.3010 PASS ME THE
-0.3010 PLEASE BRING ME
-0.6021 SITTING AT </s>
-0.6021 SITTING AT DESK
-0.3010 THANK YOU </s>
-0.3010 THAT IS ALL
-0.3010 THAT'S ALL </s>
-0.3010 THE COKE </s>
-0.3010 THE DOOR </s>
-0.3010 THE GLASS </s>
-0.3010 THE WALLET </s>
-0.3010 TO BUY A
-0.3010 TO GET A
-0.3010 TO ORDER A
-0.3010 WANT TO GET
-0.3010 WE ME </s>
-0.3010 YES PLEASE </s>

\end\
