Language model created by QuickLM on Wed May 27 15:30:34 EDT 2015
Copyright (c) 1996-2010 Carnegie Mellon University and Alexander I. Rudnicky

The model is in standard ARPA format, designed by Doug Paul while he was at MITRE.

The code that was used to produce this language model is available in Open Source.
Please visit http://www.speech.cs.cmu.edu/tools/ for more information

The (fixed) discount mass is 0.5. The backoffs are computed using the ratio method.
This model based on a corpus of 46 sentences and 66 words

\data\
ngram 1=66
ngram 2=132
ngram 3=125

\1-grams:
-1.0056 </s> -0.3010
-1.0056 <s> -0.2390
-1.6684 A -0.2390
-2.6684 AFFIRMATIVE -0.2559
-2.1913 ALL -0.2528
-2.6684 AM -0.2559
-2.6684 ANOTHER -0.3001
-2.0663 AT -0.2945
-2.3674 B -0.2559
-2.6684 BOTTLE -0.3001
-2.3674 BRING -0.2935
-2.6684 BUY -0.2916
-2.6684 C -0.2559
-2.6684 CAN -0.2992
-1.8233 COKE -0.2517
-2.6684 CORRECT -0.2559
-2.0663 DESK -0.2887
-2.6684 DOOR -0.2559
-2.3674 DRINK -0.2538
-2.6684 EXCUSE -0.2935
-2.6684 FAV -0.2559
-2.1913 FAVOURITE -0.2507
-2.6684 FINISH -0.2559
-2.6684 FINISHED -0.2559
-2.3674 GET -0.2839
-2.6684 GO -0.2992
-2.3674 GRAB -0.2935
-2.6684 HELLO -0.2559
-2.6684 HI -0.2992
-1.8233 I -0.2926
-2.6684 I'D -0.2982
-1.9694 I'M -0.2496
-2.3674 IM -0.2992
-2.3674 IS -0.2916
-2.3674 LEMONADE -0.2559
-2.1913 LIKE -0.2868
-2.3674 LIKED -0.2982
-2.6684 LOCATED -0.2559
-2.6684 MAY -0.2559
-1.7653 ME -0.2401
-1.9694 MY -0.2963
-2.1913 NO -0.2963
-2.6684 OF -0.2973
-2.6684 ONE -0.2559
-2.0663 ORDER -0.2868
-2.6684 OVER -0.2973
-2.6684 PASS -0.2935
-2.0663 PLEASE -0.2538
-2.6684 SITTING -0.2973
-2.6684 THANK -0.2992
-2.1913 THANKS -0.2559
-2.6684 THAT -0.2992
-2.6684 THAT'S -0.2982
-2.6684 THATS -0.2982
-2.1913 THE -0.2935
-2.3674 THERE -0.2559
-2.1913 TO -0.2945
-2.6684 USUAL -0.2559
-2.3674 WANT -0.2887
-2.0663 WATER -0.2517
-2.6684 WE -0.2935
-2.6684 WHERE -0.2559
-2.6684 WOULD -0.2982
-2.6684 YEAH -0.2559
-2.6684 YES -0.2973
-2.3674 YOU -0.2559

\2-grams:
-1.9638 <s> AFFIRMATIVE 0.0000
-1.9638 <s> ANOTHER 0.0000
-1.9638 <s> BRING 0.0000
-1.9638 <s> CAN 0.0000
-1.9638 <s> CORRECT 0.0000
-1.9638 <s> DESK -0.2430
-1.9638 <s> EXCUSE 0.0000
-1.9638 <s> GET -0.1761
-1.9638 <s> GO 0.0000
-1.6628 <s> GRAB 0.0000
-1.9638 <s> HELLO 0.0000
-1.9638 <s> HI 0.0000
-1.1187 <s> I 0.0000
-1.9638 <s> I'D 0.0000
-1.2648 <s> I'M 0.0000
-1.6628 <s> IM 0.0000
-1.9638 <s> LOCATED 0.0000
-1.9638 <s> MAY 0.0000
-1.9638 <s> MY -0.1461
-1.4867 <s> NO 0.0000
-1.4867 <s> ORDER -0.0969
-1.9638 <s> PASS 0.0000
-1.9638 <s> PLEASE -0.2430
-1.9638 <s> THAT 0.0000
-1.9638 <s> THAT'S 0.0000
-1.9638 <s> WATER -0.0969
-1.9638 <s> WE 0.0000
-1.9638 <s> WHERE 0.0000
-1.9638 <s> YEAH 0.0000
-1.9638 <s> YES 0.0000
-1.3010 A </s> -0.3010
-1.3010 A BOTTLE 0.0000
-0.6990 A COKE 0.0000
-1.3010 A DRINK -0.1761
-1.3010 A LEMONADE 0.0000
-1.0000 A WATER -0.0969
-0.3010 AFFIRMATIVE </s> -0.3010
-0.4771 ALL </s> -0.3010
-0.7782 ALL THANKS 0.0000
-0.3010 AM </s> -0.3010
-0.3010 ANOTHER ONE 0.0000
-0.4260 AT DESK -0.0969
-0.9031 AT THE -0.2218
-0.3010 B </s> -0.3010
-0.3010 BOTTLE OF 0.0000
-0.3010 BRING ME -0.2109
-0.3010 BUY A -0.2553
-0.3010 C </s> -0.3010
-0.3010 CAN YOU 0.0000
-0.3680 COKE </s> -0.3010
-1.1461 COKE PLEASE -0.0969
-0.3010 CORRECT </s> -0.3010
-0.9031 DESK A -0.2788
-0.6021 DESK B 0.0000
-0.9031 DESK C 0.0000
-0.3010 DOOR </s> -0.3010
-0.6021 DRINK </s> -0.3010
-0.6021 DRINK IS -0.1761
-0.3010 EXCUSE ME -0.2430
-0.3010 FAV </s> -0.3010
-0.7782 FAVOURITE </s> -0.3010
-0.7782 FAVOURITE DRINK -0.1761
-0.7782 FAVOURITE THANKS 0.0000
-0.3010 FINISH </s> -0.3010
-0.3010 FINISHED </s> -0.3010
-0.6021 GET A -0.2041
-0.6021 GET ME -0.2109
-0.3010 GO THERE 0.0000
-0.3010 GRAB ME -0.2109
-0.3010 HELLO </s> -0.3010
-0.3010 HI THERE 0.0000
-1.1461 I AM 0.0000
-1.1461 I LIKE -0.1249
-0.8451 I LIKED 0.0000
-0.8451 I WANT 0.0000
-1.1461 I WOULD 0.0000
-0.3010 I'D LIKE -0.2218
-1.0000 I'M </s> -0.3010
-0.6990 I'M AT 0.0000
-1.0000 I'M OVER 0.0000
-1.0000 I'M SITTING 0.0000
-0.6021 IM FINISH 0.0000
-0.6021 IM FINISHED 0.0000
-0.6021 IS ALL -0.1249
-0.6021 IS COKE -0.0580
-0.3010 LEMONADE </s> -0.3010
-0.4771 LIKE A -0.2041
-0.7782 LIKE MY -0.1461
-0.3010 LIKED TO -0.1249
-0.3010 LOCATED </s> -0.3010
-0.3010 MAY </s> -0.3010
-0.9031 ME </s> -0.3010
-0.7270 ME A -0.1139
-1.2041 ME LEMONADE 0.0000
-0.9031 ME THE -0.1249
-1.0000 MY FAV 0.0000
-0.5229 MY FAVOURITE 0.0000
-1.0000 MY USUAL 0.0000
-0.7782 NO THANK 0.0000
-0.7782 NO THANKS 0.0000
-0.7782 NO THATS 0.0000
-0.3010 OF WATER -0.2430
-0.3010 ONE </s> -0.3010
-0.9031 ORDER A -0.2788
-0.4260 ORDER MY 0.0000
-0.3010 OVER AT -0.0969
-0.3010 PASS ME -0.2430
-0.4260 PLEASE </s> -0.3010
-0.9031 PLEASE BRING 0.0000
-0.3010 SITTING AT -0.0969
-0.3010 THANK YOU 0.0000
-0.3010 THANKS </s> -0.3010
-0.3010 THAT IS -0.1761
-0.3010 THAT'S ALL -0.1249
-0.3010 THATS ALL -0.2218
-0.4771 THE COKE -0.0580
-0.7782 THE DOOR 0.0000
-0.3010 THERE </s> -0.3010
-0.7782 TO BUY 0.0000
-0.7782 TO GET -0.1761
-0.7782 TO ORDER -0.2430
-0.3010 USUAL </s> -0.3010
-0.6021 WANT A -0.2788
-0.6021 WANT TO -0.2218
-0.4260 WATER </s> -0.3010
-0.9031 WATER PLEASE -0.0969
-0.3010 WE ME -0.2430
-0.3010 WHERE </s> -0.3010
-0.3010 WOULD LIKE -0.1249
-0.3010 YEAH </s> -0.3010
-0.3010 YES PLEASE -0.0969
-0.3010 YOU </s> -0.3010

\3-grams:
-0.3010 <s> AFFIRMATIVE </s>
-0.3010 <s> ANOTHER ONE
-0.3010 <s> BRING ME
-0.3010 <s> CAN YOU
-0.3010 <s> CORRECT </s>
-0.3010 <s> DESK C
-0.3010 <s> EXCUSE ME
-0.3010 <s> GET ME
-0.3010 <s> GO THERE
-0.3010 <s> GRAB ME
-0.3010 <s> HELLO </s>
-0.3010 <s> HI THERE
-1.1461 <s> I AM
-1.1461 <s> I LIKE
-0.8451 <s> I LIKED
-0.8451 <s> I WANT
-1.1461 <s> I WOULD
-0.3010 <s> I'D LIKE
-1.0000 <s> I'M </s>
-0.6990 <s> I'M AT
-1.0000 <s> I'M OVER
-1.0000 <s> I'M SITTING
-0.6021 <s> IM FINISH
-0.6021 <s> IM FINISHED
-0.3010 <s> LOCATED </s>
-0.3010 <s> MAY </s>
-0.3010 <s> MY FAVOURITE
-0.7782 <s> NO THANK
-0.7782 <s> NO THANKS
-0.7782 <s> NO THATS
-0.3010 <s> ORDER MY
-0.3010 <s> PASS ME
-0.3010 <s> PLEASE BRING
-0.3010 <s> THAT IS
-0.3010 <s> THAT'S ALL
-0.3010 <s> WATER </s>
-0.3010 <s> WE ME
-0.3010 <s> WHERE </s>
-0.3010 <s> YEAH </s>
-0.3010 <s> YES PLEASE
-0.3010 A BOTTLE OF
-0.4260 A COKE </s>
-0.9031 A COKE PLEASE
-0.3010 A DRINK </s>
-0.3010 A LEMONADE </s>
-0.3010 A WATER </s>
-0.3010 ALL THANKS </s>
-0.3010 ANOTHER ONE </s>
-0.7782 AT DESK A
-0.4771 AT DESK B
-0.3010 AT THE DOOR
-0.3010 BOTTLE OF WATER
-0.6021 BRING ME LEMONADE
-0.6021 BRING ME THE
-0.3010 BUY A WATER
-0.3010 CAN YOU </s>
-0.3010 COKE PLEASE </s>
-0.3010 DESK A </s>
-0.3010 DESK B </s>
-0.3010 DESK C </s>
-0.3010 DRINK IS COKE
-0.3010 EXCUSE ME </s>
-0.3010 FAVOURITE DRINK IS
-0.3010 FAVOURITE THANKS </s>
-0.3010 GET A COKE
-0.3010 GET ME A
-0.3010 GO THERE </s>
-0.3010 GRAB ME A
-0.3010 HI THERE </s>
-0.3010 I AM </s>
-0.3010 I LIKE A
-0.3010 I LIKED TO
-0.6021 I WANT A
-0.6021 I WANT TO
-0.3010 I WOULD LIKE
-0.3010 I'D LIKE MY
-0.6021 I'M AT DESK
-0.6021 I'M AT THE
-0.3010 I'M OVER AT
-0.3010 I'M SITTING AT
-0.3010 IM FINISH </s>
-0.3010 IM FINISHED </s>
-0.3010 IS ALL </s>
-0.3010 IS COKE </s>
-0.3010 LIKE A COKE
-0.3010 LIKE MY FAVOURITE
-0.6021 LIKED TO BUY
-0.6021 LIKED TO ORDER
-0.7782 ME A BOTTLE
-0.7782 ME A COKE
-0.7782 ME A WATER
-0.3010 ME LEMONADE </s>
-0.3010 ME THE COKE
-0.3010 MY FAV </s>
-0.7782 MY FAVOURITE </s>
-0.7782 MY FAVOURITE DRINK
-0.7782 MY FAVOURITE THANKS
-0.3010 MY USUAL </s>
-0.3010 NO THANK YOU
-0.3010 NO THANKS </s>
-0.3010 NO THATS ALL
-0.3010 OF WATER PLEASE
-0.3010 ORDER A DRINK
-0.7782 ORDER MY FAV
-0.7782 ORDER MY FAVOURITE
-0.7782 ORDER MY USUAL
-0.3010 OVER AT DESK
-0.3010 PASS ME THE
-0.3010 PLEASE BRING ME
-0.3010 SITTING AT DESK
-0.3010 THANK YOU </s>
-0.3010 THAT IS ALL
-0.3010 THAT'S ALL </s>
-0.3010 THATS ALL THANKS
-0.3010 THE COKE </s>
-0.3010 THE DOOR </s>
-0.3010 TO BUY A
-0.3010 TO GET A
-0.3010 TO ORDER A
-0.3010 WANT A LEMONADE
-0.3010 WANT TO GET
-0.3010 WATER PLEASE </s>
-0.3010 WE ME </s>
-0.3010 WOULD LIKE A
-0.3010 YES PLEASE </s>

\end\
